digraph Tree {
node [shape=box, style="filled, rounded", color="black", fontname="helvetica"] ;
edge [fontname="helvetica"] ;
0 [label="x[31] <= 0.02\ngini = 0.96\nsamples = 1177\nvalue = [86, 94, 86, 71, 74, 84, 86, 76, 80, 77, 74, 74\n81, 86, 84, 67, 77, 87, 69, 72, 90, 84, 83, 60]", fillcolor="#ffffff"] ;
1 [label="gini = 0.0\nsamples = 51\nvalue = [0, 0, 0, 0, 0, 0, 0, 0, 0, 0, 0, 0, 81, 0\n0, 0, 0, 0, 0, 0, 0, 0, 0, 0]", fillcolor="#399de5"] ;
0 -> 1 [labeldistance=2.5, labelangle=45, headlabel="True"] ;
2 [label="x[11] <= 0.03\ngini = 0.96\nsamples = 1126\nvalue = [86, 94, 86, 71, 74, 84, 86, 76, 80, 77, 74, 74\n0, 86, 84, 67, 77, 87, 69, 72, 90, 84, 83, 60]", fillcolor="#ffffff"] ;
0 -> 2 [labeldistance=2.5, labelangle=-45, headlabel="False"] ;
3 [label="x[7] <= 0.09\ngini = 0.5\nsamples = 99\nvalue = [0, 0, 0, 0, 0, 0, 0, 0, 0, 0, 0, 0, 0, 0\n0, 0, 0, 0, 0, 0, 90, 84, 0, 0]", fillcolor="#fdf2f8"] ;
2 -> 3 ;
4 [label="x[24] <= 0.36\ngini = 0.33\nsamples = 62\nvalue = [0, 0, 0, 0, 0, 0, 0, 0, 0, 0, 0, 0, 0, 0\n0, 0, 0, 0, 0, 0, 90, 24, 0, 0]", fillcolor="#ec6eb7"] ;
3 -> 4 ;
5 [label="gini = 0.0\nsamples = 49\nvalue = [0, 0, 0, 0, 0, 0, 0, 0, 0, 0, 0, 0, 0, 0\n0, 0, 0, 0, 0, 0, 90, 0, 0, 0]", fillcolor="#e5399d"] ;
4 -> 5 ;
6 [label="gini = 0.0\nsamples = 13\nvalue = [0, 0, 0, 0, 0, 0, 0, 0, 0, 0, 0, 0, 0, 0\n0, 0, 0, 0, 0, 0, 0, 24, 0, 0]", fillcolor="#e53972"] ;
4 -> 6 ;
7 [label="gini = 0.0\nsamples = 37\nvalue = [0, 0, 0, 0, 0, 0, 0, 0, 0, 0, 0, 0, 0, 0\n0, 0, 0, 0, 0, 0, 0, 60, 0, 0]", fillcolor="#e53972"] ;
3 -> 7 ;
8 [label="x[16] <= 0.02\ngini = 0.95\nsamples = 1027\nvalue = [86, 94, 86, 71, 74, 84, 86, 76, 80, 77, 74, 74\n0, 86, 84, 67, 77, 87, 69, 72, 0, 0, 83, 60]", fillcolor="#fffffe"] ;
2 -> 8 ;
9 [label="gini = 0.0\nsamples = 57\nvalue = [0, 0, 0, 0, 0, 0, 86, 0, 0, 0, 0, 0, 0, 0\n0, 0, 0, 0, 0, 0, 0, 0, 0, 0]", fillcolor="#47e539"] ;
8 -> 9 ;
10 [label="x[19] <= 0.06\ngini = 0.95\nsamples = 970\nvalue = [86, 94, 86, 71, 74, 84, 0, 76, 80, 77, 74, 74\n0, 86, 84, 67, 77, 87, 69, 72, 0, 0, 83, 60]", fillcolor="#fffffe"] ;
8 -> 10 ;
11 [label="x[8] <= 0.23\ngini = 0.5\nsamples = 93\nvalue = [86, 0, 0, 0, 0, 0, 0, 76, 0, 0, 0, 0, 0, 0\n0, 0, 0, 0, 0, 0, 0, 0, 0, 0]", fillcolor="#fcf0e8"] ;
10 -> 11 ;
12 [label="gini = 0.0\nsamples = 48\nvalue = [86, 0, 0, 0, 0, 0, 0, 0, 0, 0, 0, 0, 0, 0\n0, 0, 0, 0, 0, 0, 0, 0, 0, 0]", fillcolor="#e58139"] ;
11 -> 12 ;
13 [label="gini = 0.0\nsamples = 45\nvalue = [0, 0, 0, 0, 0, 0, 0, 76, 0, 0, 0, 0, 0, 0\n0, 0, 0, 0, 0, 0, 0, 0, 0, 0]", fillcolor="#39e556"] ;
11 -> 13 ;
14 [label="x[5] <= 0.33\ngini = 0.94\nsamples = 877\nvalue = [0, 94, 86, 71, 74, 84, 0, 0, 80, 77, 74, 74, 0\n86, 84, 67, 77, 87, 69, 72, 0, 0, 83, 60]", fillcolor="#fffffe"] ;
10 -> 14 ;
15 [label="x[29] <= 0.01\ngini = 0.86\nsamples = 341\nvalue = [0, 0, 0, 71, 74, 84, 0, 0, 0, 77, 74, 0, 0\n0, 0, 8, 73, 2, 69, 0, 0, 0, 4, 0]", fillcolor="#fdfffc"] ;
14 -> 15 ;
16 [label="gini = 0.0\nsamples = 52\nvalue = [0, 0, 0, 0, 0, 82, 0, 0, 0, 0, 0, 0, 0, 0\n0, 0, 0, 0, 0, 0, 0, 0, 0, 0]", fillcolor="#72e539"] ;
15 -> 16 ;
17 [label="x[38] <= 0.18\ngini = 0.84\nsamples = 289\nvalue = [0, 0, 0, 71, 74, 2, 0, 0, 0, 77, 74, 0, 0, 0\n0, 8, 73, 2, 69, 0, 0, 0, 4, 0]", fillcolor="#fdfffe"] ;
15 -> 17 ;
18 [label="x[26] <= 0.08\ngini = 0.82\nsamples = 242\nvalue = [0, 0, 0, 71, 74, 2, 0, 0, 0, 77, 0, 0, 0, 0\n0, 8, 73, 2, 69, 0, 0, 0, 4, 0]", fillcolor="#fdfffe"] ;
17 -> 18 ;
19 [label="x[28] <= 0.06\ngini = 0.77\nsamples = 197\nvalue = [0, 0, 0, 71, 74, 2, 0, 0, 0, 77, 0, 0, 0, 0\n0, 8, 0, 2, 69, 0, 0, 0, 4, 0]", fillcolor="#fcfffe"] ;
18 -> 19 ;
20 [label="x[6] <= 0.17\ngini = 0.53\nsamples = 87\nvalue = [0, 0, 0, 68, 2, 0, 0, 0, 0, 0, 0, 0, 0, 0\n0, 0, 0, 2, 69, 0, 0, 0, 0, 0]", fillcolor="#fefcff"] ;
19 -> 20 ;
21 [label="x[35] <= 0.2\ngini = 0.11\nsamples = 45\nvalue = [0, 0, 0, 68, 2, 0, 0, 0, 0, 0, 0, 0, 0, 0\n0, 0, 0, 2, 0, 0, 0, 0, 0, 0]", fillcolor="#cbe644"] ;
20 -> 21 ;
22 [label="x[1] <= 0.34\ngini = 0.06\nsamples = 43\nvalue = [0, 0, 0, 68, 2, 0, 0, 0, 0, 0, 0, 0, 0, 0\n0, 0, 0, 0, 0, 0, 0, 0, 0, 0]", fillcolor="#cae63f"] ;
21 -> 22 ;
23 [label="gini = 0.0\nsamples = 2\nvalue = [0, 0, 0, 0, 2, 0, 0, 0, 0, 0, 0, 0, 0, 0\n0, 0, 0, 0, 0, 0, 0, 0, 0, 0]", fillcolor="#9de539"] ;
22 -> 23 ;
24 [label="gini = 0.0\nsamples = 41\nvalue = [0, 0, 0, 68, 0, 0, 0, 0, 0, 0, 0, 0, 0, 0\n0, 0, 0, 0, 0, 0, 0, 0, 0, 0]", fillcolor="#c8e539"] ;
22 -> 24 ;
25 [label="gini = 0.0\nsamples = 2\nvalue = [0, 0, 0, 0, 0, 0, 0, 0, 0, 0, 0, 0, 0, 0\n0, 0, 0, 2, 0, 0, 0, 0, 0, 0]", fillcolor="#ac39e5"] ;
21 -> 25 ;
26 [label="gini = 0.0\nsamples = 42\nvalue = [0, 0, 0, 0, 0, 0, 0, 0, 0, 0, 0, 0, 0, 0\n0, 0, 0, 0, 69, 0, 0, 0, 0, 0]", fillcolor="#d739e5"] ;
20 -> 26 ;
27 [label="x[26] <= 0.05\ngini = 0.59\nsamples = 110\nvalue = [0, 0, 0, 3, 72, 2, 0, 0, 0, 77, 0, 0, 0, 0\n0, 8, 0, 0, 0, 0, 0, 0, 4, 0]", fillcolor="#f4fefb"] ;
19 -> 27 ;
28 [label="x[12] <= 0.14\ngini = 0.06\nsamples = 44\nvalue = [0, 0, 0, 0, 68, 2, 0, 0, 0, 0, 0, 0, 0, 0\n0, 0, 0, 0, 0, 0, 0, 0, 0, 0]", fillcolor="#a0e63f"] ;
27 -> 28 ;
29 [label="gini = 0.0\nsamples = 2\nvalue = [0, 0, 0, 0, 0, 2, 0, 0, 0, 0, 0, 0, 0, 0\n0, 0, 0, 0, 0, 0, 0, 0, 0, 0]", fillcolor="#72e539"] ;
28 -> 29 ;
30 [label="gini = 0.0\nsamples = 42\nvalue = [0, 0, 0, 0, 68, 0, 0, 0, 0, 0, 0, 0, 0, 0\n0, 0, 0, 0, 0, 0, 0, 0, 0, 0]", fillcolor="#9de539"] ;
28 -> 30 ;
31 [label="x[11] <= 0.12\ngini = 0.35\nsamples = 66\nvalue = [0, 0, 0, 3, 4, 0, 0, 0, 0, 77, 0, 0, 0, 0\n0, 8, 0, 0, 0, 0, 0, 0, 4, 0]", fillcolor="#64ebbe"] ;
27 -> 31 ;
32 [label="gini = 0.0\nsamples = 52\nvalue = [0, 0, 0, 0, 0, 0, 0, 0, 0, 77, 0, 0, 0, 0\n0, 0, 0, 0, 0, 0, 0, 0, 0, 0]", fillcolor="#39e5ac"] ;
31 -> 32 ;
33 [label="x[15] <= 0.05\ngini = 0.71\nsamples = 14\nvalue = [0, 0, 0, 3, 4, 0, 0, 0, 0, 0, 0, 0, 0, 0\n0, 8, 0, 0, 0, 0, 0, 0, 4, 0]", fillcolor="#d2caf8"] ;
31 -> 33 ;
34 [label="gini = 0.0\nsamples = 6\nvalue = [0, 0, 0, 0, 0, 0, 0, 0, 0, 0, 0, 0, 0, 0\n0, 8, 0, 0, 0, 0, 0, 0, 0, 0]", fillcolor="#5639e5"] ;
33 -> 34 ;
35 [label="x[14] <= 0.21\ngini = 0.66\nsamples = 8\nvalue = [0, 0, 0, 3, 4, 0, 0, 0, 0, 0, 0, 0, 0, 0\n0, 0, 0, 0, 0, 0, 0, 0, 4, 0]", fillcolor="#ffffff"] ;
33 -> 35 ;
36 [label="x[22] <= 0.13\ngini = 0.49\nsamples = 5\nvalue = [0, 0, 0, 3, 0, 0, 0, 0, 0, 0, 0, 0, 0, 0\n0, 0, 0, 0, 0, 0, 0, 0, 4, 0]", fillcolor="#f8ced1"] ;
35 -> 36 ;
37 [label="gini = 0.0\nsamples = 2\nvalue = [0, 0, 0, 3, 0, 0, 0, 0, 0, 0, 0, 0, 0, 0\n0, 0, 0, 0, 0, 0, 0, 0, 0, 0]", fillcolor="#c8e539"] ;
36 -> 37 ;
38 [label="gini = 0.0\nsamples = 3\nvalue = [0, 0, 0, 0, 0, 0, 0, 0, 0, 0, 0, 0, 0, 0\n0, 0, 0, 0, 0, 0, 0, 0, 4, 0]", fillcolor="#e53947"] ;
36 -> 38 ;
39 [label="gini = 0.0\nsamples = 3\nvalue = [0, 0, 0, 0, 4, 0, 0, 0, 0, 0, 0, 0, 0, 0\n0, 0, 0, 0, 0, 0, 0, 0, 0, 0]", fillcolor="#9de539"] ;
35 -> 39 ;
40 [label="gini = 0.0\nsamples = 45\nvalue = [0, 0, 0, 0, 0, 0, 0, 0, 0, 0, 0, 0, 0, 0\n0, 0, 73, 0, 0, 0, 0, 0, 0, 0]", fillcolor="#8139e5"] ;
18 -> 40 ;
41 [label="gini = 0.0\nsamples = 47\nvalue = [0, 0, 0, 0, 0, 0, 0, 0, 0, 0, 74, 0, 0, 0\n0, 0, 0, 0, 0, 0, 0, 0, 0, 0]", fillcolor="#39e5d7"] ;
17 -> 41 ;
42 [label="x[17] <= 0.0\ngini = 0.91\nsamples = 536\nvalue = [0, 94, 86, 0, 0, 0, 0, 0, 80, 0, 0, 74, 0\n86, 84, 59, 4, 85, 0, 72, 0, 0, 79, 60]", fillcolor="#fffefd"] ;
14 -> 42 ;
43 [label="x[16] <= 0.19\ngini = 0.66\nsamples = 148\nvalue = [0, 0, 86, 0, 0, 0, 0, 0, 0, 0, 0, 0, 0, 0\n0, 0, 0, 85, 0, 0, 0, 0, 0, 60]", fillcolor="#fffffe"] ;
42 -> 43 ;
44 [label="x[30] <= 0.05\ngini = 0.45\nsamples = 80\nvalue = [0, 0, 0, 0, 0, 0, 0, 0, 0, 0, 0, 0, 0, 0\n0, 0, 0, 85, 0, 0, 0, 0, 0, 44]", fillcolor="#d79ff2"] ;
43 -> 44 ;
45 [label="gini = 0.0\nsamples = 30\nvalue = [0, 0, 0, 0, 0, 0, 0, 0, 0, 0, 0, 0, 0, 0\n0, 0, 0, 0, 0, 0, 0, 0, 0, 44]", fillcolor="#e55639"] ;
44 -> 45 ;
46 [label="gini = 0.0\nsamples = 50\nvalue = [0, 0, 0, 0, 0, 0, 0, 0, 0, 0, 0, 0, 0, 0\n0, 0, 0, 85, 0, 0, 0, 0, 0, 0]", fillcolor="#ac39e5"] ;
44 -> 46 ;
47 [label="x[6] <= 0.19\ngini = 0.26\nsamples = 68\nvalue = [0, 0, 86, 0, 0, 0, 0, 0, 0, 0, 0, 0, 0, 0\n0, 0, 0, 0, 0, 0, 0, 0, 0, 16]", fillcolor="#eade5e"] ;
43 -> 47 ;
48 [label="gini = 0.0\nsamples = 13\nvalue = [0, 0, 0, 0, 0, 0, 0, 0, 0, 0, 0, 0, 0, 0\n0, 0, 0, 0, 0, 0, 0, 0, 0, 16]", fillcolor="#e55639"] ;
47 -> 48 ;
49 [label="gini = 0.0\nsamples = 55\nvalue = [0, 0, 86, 0, 0, 0, 0, 0, 0, 0, 0, 0, 0, 0\n0, 0, 0, 0, 0, 0, 0, 0, 0, 0]", fillcolor="#e5d739"] ;
47 -> 49 ;
50 [label="x[24] <= 0.09\ngini = 0.87\nsamples = 388\nvalue = [0, 94, 0, 0, 0, 0, 0, 0, 80, 0, 0, 74, 0, 86\n84, 59, 4, 0, 0, 72, 0, 0, 79, 0]", fillcolor="#fffefc"] ;
42 -> 50 ;
51 [label="gini = 0.0\nsamples = 48\nvalue = [0, 0, 0, 0, 0, 0, 0, 0, 0, 0, 0, 0, 0, 86\n0, 0, 0, 0, 0, 0, 0, 0, 0, 0]", fillcolor="#3972e5"] ;
50 -> 51 ;
52 [label="x[33] <= 0.16\ngini = 0.86\nsamples = 340\nvalue = [0, 94, 0, 0, 0, 0, 0, 0, 80, 0, 0, 74, 0, 0\n84, 59, 4, 0, 0, 72, 0, 0, 79, 0]", fillcolor="#fefdfb"] ;
50 -> 52 ;
53 [label="x[17] <= 0.24\ngini = 0.66\nsamples = 149\nvalue = [0, 94, 0, 0, 0, 0, 0, 0, 0, 0, 0, 0, 0, 0\n84, 0, 0, 0, 0, 72, 0, 0, 0, 0]", fillcolor="#fdfaf3"] ;
52 -> 53 ;
54 [label="x[39] <= 0.26\ngini = 0.5\nsamples = 105\nvalue = [0, 94, 0, 0, 0, 0, 0, 0, 0, 0, 0, 0, 0, 0\n84, 0, 0, 0, 0, 0, 0, 0, 0, 0]", fillcolor="#fcf6ea"] ;
53 -> 54 ;
55 [label="gini = 0.0\nsamples = 54\nvalue = [0, 94, 0, 0, 0, 0, 0, 0, 0, 0, 0, 0, 0, 0\n0, 0, 0, 0, 0, 0, 0, 0, 0, 0]", fillcolor="#e5ac39"] ;
54 -> 55 ;
56 [label="gini = 0.0\nsamples = 51\nvalue = [0, 0, 0, 0, 0, 0, 0, 0, 0, 0, 0, 0, 0, 0\n84, 0, 0, 0, 0, 0, 0, 0, 0, 0]", fillcolor="#3947e5"] ;
54 -> 56 ;
57 [label="gini = 0.0\nsamples = 44\nvalue = [0, 0, 0, 0, 0, 0, 0, 0, 0, 0, 0, 0, 0, 0\n0, 0, 0, 0, 0, 72, 0, 0, 0, 0]", fillcolor="#e539c8"] ;
53 -> 57 ;
58 [label="x[15] <= 0.16\ngini = 0.75\nsamples = 191\nvalue = [0, 0, 0, 0, 0, 0, 0, 0, 80, 0, 0, 74, 0, 0\n0, 59, 4, 0, 0, 0, 0, 0, 79, 0]", fillcolor="#fefffe"] ;
52 -> 58 ;
59 [label="x[6] <= 0.2\ngini = 0.66\nsamples = 139\nvalue = [0, 0, 0, 0, 0, 0, 0, 0, 80, 0, 0, 74, 0, 0\n0, 59, 0, 0, 0, 0, 0, 0, 0, 0]", fillcolor="#f6fefa"] ;
58 -> 59 ;
60 [label="x[16] <= 0.15\ngini = 0.5\nsamples = 98\nvalue = [0, 0, 0, 0, 0, 0, 0, 0, 80, 0, 0, 74, 0, 0\n0, 0, 0, 0, 0, 0, 0, 0, 0, 0]", fillcolor="#f0fdf6"] ;
59 -> 60 ;
61 [label="gini = 0.0\nsamples = 50\nvalue = [0, 0, 0, 0, 0, 0, 0, 0, 80, 0, 0, 0, 0, 0\n0, 0, 0, 0, 0, 0, 0, 0, 0, 0]", fillcolor="#39e581"] ;
60 -> 61 ;
62 [label="gini = 0.0\nsamples = 48\nvalue = [0, 0, 0, 0, 0, 0, 0, 0, 0, 0, 0, 74, 0, 0\n0, 0, 0, 0, 0, 0, 0, 0, 0, 0]", fillcolor="#39c8e5"] ;
60 -> 62 ;
63 [label="gini = 0.0\nsamples = 41\nvalue = [0, 0, 0, 0, 0, 0, 0, 0, 0, 0, 0, 0, 0, 0\n0, 59, 0, 0, 0, 0, 0, 0, 0, 0]", fillcolor="#5639e5"] ;
59 -> 63 ;
64 [label="x[38] <= 0.02\ngini = 0.09\nsamples = 52\nvalue = [0, 0, 0, 0, 0, 0, 0, 0, 0, 0, 0, 0, 0, 0\n0, 0, 4, 0, 0, 0, 0, 0, 79, 0]", fillcolor="#e64350"] ;
58 -> 64 ;
65 [label="gini = 0.0\nsamples = 49\nvalue = [0, 0, 0, 0, 0, 0, 0, 0, 0, 0, 0, 0, 0, 0\n0, 0, 0, 0, 0, 0, 0, 0, 79, 0]", fillcolor="#e53947"] ;
64 -> 65 ;
66 [label="gini = 0.0\nsamples = 3\nvalue = [0, 0, 0, 0, 0, 0, 0, 0, 0, 0, 0, 0, 0, 0\n0, 0, 4, 0, 0, 0, 0, 0, 0, 0]", fillcolor="#8139e5"] ;
64 -> 66 ;
}